{"version": "0.5.2", "metadata": {"date": {"year": 2023, "month": 10, "day": 22, "hour": 12, "minute": 56, "second": 1}, "loudness": -19.583093643188477, "gain": 0.8221741762981145, "name": "Marshall vs100", "modeled_by": "mark", "gear_type": "amp_cab", "gear_make": "marshall", "gear_model": "vs100", "tone_type": "hi_gain"}, "architecture": "WaveNet", "config": {"layers": [{"input_size": 1, "condition_size": 1, "head_size": 4, "channels": 8, "kernel_size": 3, "dilations": [1, 2, 4, 8, 16, 32, 64], "activation": "Tanh", "gated": false, "head_bias": false}, {"input_size": 8, "condition_size": 1, "head_size": 1, "channels": 4, "kernel_size": 3, "dilations": [128, 256, 512, 1, 2, 4, 8, 16, 32, 64, 128, 256, 512], "activation": "Tanh", "gated": false, "head_bias": true}], "head": null, "head_scale": 0.02}, "weights": [0.3893601596355438, 0.7450918555259705, -1.2458620071411133, -0.6155254244804382, -0.45413658022880554, 0.33807262778282166, 0.15659275650978088, 0.9250824451446533, -0.05759960412979126, -0.14063043892383575, 0.03756091743707657, -0.16790074110031128, -0.4241357743740082, -0.1751476526260376, 0.0487990602850914, 0.23990339040756226, 0.1281874030828476, 0.2510147988796234, 0.0930565819144249, -0.04135739058256149, 0.19852136075496674, 0.40424492955207825, -0.0005646659410558641, 0.03734344616532326, -0.26109376549720764, -0.016648156568408012, 0.15631873905658722, -0.37309032678604126, -0.05859033390879631, -0.18776045739650726, -0.3153291642665863, 0.12834441661834717, 0.04367563873529434, 0.11759763211011887, -0.4407769739627838, 0.029819464311003685, 0.06427378207445145, 0.009849963709712029, -0.14147499203681946, -0.09310107678174973, 0.17251062393188477, -0.32651570439338684, -0.1542455404996872, -0.04308594763278961, -0.3596360385417938, -0.2934682071208954, 0.28606116771698, 0.3256526291370392, 0.09457066655158997, -0.16966566443443298, 0.2566640377044678, 0.3713550865650177, -0.19338709115982056, 0.2542937099933624, 0.3244491517543793, -0.2751264274120331, 0.23842407763004303, -0.3014085292816162, -0.45731276273727417, 0.10356298834085464, 0.029205279424786568, -0.2390609085559845, -0.34849080443382263, 0.12002789974212646, 0.4532589614391327, -0.21432055532932281, 0.08094839006662369, 0.36465004086494446, -0.0698293074965477, 0.27396127581596375, 0.15492098033428192, 0.14374729990959167, 0.012600317597389221, -0.15060681104660034, 0.4214976131916046, 0.06943698227405548, -0.28036919236183167, 0.014853211119771004, -0.049734100699424744, -0.4450283348560333, -0.5222334265708923, 0.21165969967842102, 0.5045763850212097, -0.594348132610321, 0.030482416972517967, 0.16786476969718933, 0.3752535581588745, -0.08023504912853241, -0.1256958395242691, 0.25577619671821594, 0.08931813389062881, -0.08274401724338531, 0.5210332274436951, 0.09400460124015808, -0.3935827314853668, -0.5063794255256653, 0.0871334969997406, 0.24403485655784607, -0.4866606593132019, -0.12042200565338135, 0.4898456037044525, -0.25314265489578247, -0.10214782506227493, 0.13847148418426514, -0.38241028785705566, -0.24054723978042603, -0.01143970713019371, -0.3854038715362549, -0.2703115940093994, 0.11568178981542587, 0.15137901902198792, 0.38452088832855225, -0.20805753767490387, 0.40142595767974854, 0.3930196464061737, -0.2519157826900482, 0.16624926030635834, 0.2658434510231018, -0.0508124902844429, -0.16877320408821106, -0.1780465543270111, 0.0941254049539566, -0.34947890043258667, -0.20928429067134857, -0.13925963640213013, -0.35295340418815613, -0.31575483083724976, -0.024638256058096886, -0.11689198017120361, -0.3087720274925232, 0.13221116364002228, -0.020204251632094383, -0.2880323827266693, 0.06453358381986618, 0.21054500341415405, 0.1367463320493698, -0.06769050657749176, 0.05591725930571556, 0.2021455317735672, 0.06631280481815338, 0.2647823393344879, 0.2902967929840088, 0.12393812090158463, -0.07923657447099686, -0.3410733938217163, -0.02534712478518486, 0.1327524036169052, -0.11122719198465347, 0.055238910019397736, -0.22287315130233765, -0.34657877683639526, -0.10100482404232025, -0.1162894144654274, 0.2790762186050415, 0.03169522061944008, -0.14402781426906586, 0.3638527989387512, -0.05792668089270592, -0.09624168276786804, -0.32354873418807983, -0.15304826200008392, -0.09919318556785583, -0.42292752861976624, -0.28359824419021606, -0.083884097635746, -0.23636451363563538, -0.18960322439670563, 0.1167980208992958, 0.0501154288649559, 0.08208290487527847, 0.10226555168628693, 0.08231043070554733, 0.14332576096057892, 0.13843050599098206, 0.059963274747133255, 0.23984788358211517, 0.287641704082489, -0.04019971936941147, -0.10013579577207565, 0.23331840336322784, 0.14163358509540558, -0.1933543086051941, -0.26922959089279175, -0.07021654397249222, 0.2518383860588074, -0.3110596835613251, -0.1710367202758789, 0.09239397943019867, -0.5453925728797913, -0.007613054476678371, 0.3049515187740326, 0.5160070061683655, -0.02916945144534111, -0.14439602196216583, 0.12174368649721146, -0.08494832366704941, -0.3828708827495575, 0.47074905037879944, 0.006940386723726988, -0.13871335983276367, 0.03517746552824974, 0.045441482216119766, -0.03830500692129135, -0.06807668507099152, -0.09445858746767044, 0.2014625519514084, -0.12458609789609909, 0.13261370360851288, 0.2980858385562897, -0.012616043910384178, -0.34057241678237915, -0.020581956952810287, 0.19501328468322754, -0.1683349311351776, 0.12057331949472427, 0.0031005048658698797, -0.4901025891304016, 0.08071153610944748, -0.0005479223909787834, -0.49583563208580017, -0.29484233260154724, 0.13405688107013702, 0.32980507612228394, 0.2371019423007965, -0.33171236515045166, 0.2225847989320755, -0.5084556341171265, -0.20783847570419312, -0.11608710885047913, -0.09530184417963028, 0.028888262808322906, 0.38215479254722595, 0.3051614463329315, 0.23900774121284485, 1.089548110961914, -0.2910589575767517, 0.08389028161764145, -0.037941824644804, -0.5350527763366699, 0.32582542300224304, -0.29697829484939575, 0.519003689289093, -0.3415831923484802, -0.334540992975235, -0.14533668756484985, -0.6752546429634094, 0.6089548468589783, -0.0549948588013649, 0.19963087141513824, -0.2527834177017212, -0.2509422302246094, 0.29606863856315613, 0.43914783000946045, 0.12635059654712677, -0.3363167345523834, -0.24679672718048096, -0.40173107385635376, 0.23455701768398285, 0.012981070205569267, -0.38735514879226685, -0.20450322329998016, 0.03575514256954193, 0.30377331376075745, 0.27834928035736084, 0.5481618046760559, -0.40810421109199524, 0.02271330915391445, 0.43059179186820984, 0.709018886089325, 0.29293060302734375, -0.363905131816864, -0.4864872694015503, -0.41533297300338745, 0.01924062706530094, -0.30790090560913086, -0.22585700452327728, 0.2973208725452423, -0.37921783328056335, 0.13018153607845306, -0.022366831079125404, 0.1040106862783432, -0.05559178441762924, -0.14302577078342438, 0.13583078980445862, 0.05739457160234451, -0.017957434058189392, -0.13096296787261963, 0.0700877457857132, 0.15047064423561096, -0.07662374526262283, -0.1502821445465088, 0.1613989770412445, 0.06088973209261894, 0.02809753082692623, -0.10358522087335587, -0.0659857764840126, 0.05855146050453186, -0.11640884727239609, 0.051027800887823105, -0.06965725123882294, -0.2304953783750534, -0.03614426031708717, -0.07041128724813461, 0.1052885353565216, 0.052832335233688354, -0.1674117147922516, -0.13707804679870605, 0.06474624574184418, 0.0720534697175026, 0.08623792231082916, -0.14261555671691895, -0.0016512882430106401, 0.325773149728775, 0.21181777119636536, -0.09535493701696396, 0.23332874476909637, -0.25798535346984863, -0.10810139030218124, -0.18447288870811462, 0.28514713048934937, 0.09622503072023392, 0.20289593935012817, -0.11421707272529602, -0.11114583909511566, 0.09259947389364243, 0.277355819940567, 0.26319557428359985, 0.23598749935626984, 0.13723260164260864, -0.11580582708120346, -0.2803303897380829, -0.21966400742530823, 0.39307886362075806, 0.23534879088401794, -0.342833012342453, 0.00017887767171487212, 0.28097519278526306, 0.18314304947853088, 0.11792390793561935, 0.23677890002727509, -0.01733197085559368, 0.02532357908785343, 0.10684660077095032, 0.10520222038030624, -0.37594619393348694, 0.26205092668533325, 0.14536090195178986, 0.1933678835630417, -0.2740146219730377, -0.05449555814266205, -0.11586169898509979, 0.24894851446151733, 0.01878756284713745, 0.1277497410774231, -0.08015359938144684, 0.03071792982518673, -0.07243406027555466, 0.13223566114902496, -0.15841639041900635, 0.13429848849773407, -0.1176920011639595, -0.15333248674869537, -0.4396963119506836, 0.07068765163421631, -0.09189531207084656, -0.010088913142681122, 0.05840647593140602, 0.10316532105207443, -0.23573791980743408, 0.04397689923644066, -0.12430436164140701, 0.0794549360871315, -0.0644930973649025, -0.0876597911119461, 0.04324200749397278, -0.1358887255191803, 0.14514009654521942, 0.0032113827764987946, 0.11757294088602066, 0.09536369889974594, 0.37685737013816833, -0.08834756910800934, -0.1040557250380516, 0.09118663519620895, 0.2077181190252304, 0.03703799843788147, 0.14524711668491364, 0.17686721682548523, -0.00658801756799221, 0.06682931631803513, 0.24729061126708984, -0.21271832287311554, 0.15994898974895477, 0.004842422902584076, -0.06263384222984314, 0.19425936043262482, 0.014825744554400444, 0.007714817766100168, -0.12518152594566345, 0.20841240882873535, 0.11321248859167099, -0.017563408240675926, -0.25255995988845825, 0.2602558732032776, 0.04765447974205017, -0.13996753096580505, 0.31462541222572327, 0.08898982405662537, -0.17694705724716187, -0.07838713377714157, -0.09606801718473434, -0.2929937243461609, 0.07430703938007355, 0.0030349392909556627, 0.13314177095890045, -0.22890742123126984, -0.1300739347934723, -0.06986860185861588, 0.01951505057513714, 0.3198884129524231, 0.19309130311012268, 0.08098627626895905, 1.7738328097038902e-05, 0.009740982204675674, 0.04090974107384682, -0.11376975476741791, 0.009323133155703545, -0.056636419147253036, -0.18777194619178772, -0.13801421225070953, -0.12702155113220215, 0.1796284168958664, -0.12647774815559387, -0.18354342877864838, 0.004568693693727255, -0.15008407831192017, 0.3208065330982208, -0.12217635661363602, 0.39256346225738525, -0.47307902574539185, -0.02501058019697666, -0.41166940331459045, 0.018071411177515984, 0.2073206603527069, -0.15075883269309998, -0.050181794911623, -0.15918663144111633, -0.13963952660560608, 0.07253065705299377, -0.2095595747232437, 0.3067367672920227, 0.01054441649466753, 0.042938992381095886, 0.019243935123085976, 0.1562485694885254, 0.12878309190273285, 0.18669605255126953, 0.3582700192928314, -0.667056679725647, 0.23232561349868774, 0.050062600523233414, -0.4499390721321106, -0.18464602530002594, -0.06058239936828613, 0.5370832085609436, 0.26290208101272583, 0.28981679677963257, -0.5514830350875854, -0.44987890124320984, -0.514249324798584, 0.5001770853996277, 0.36927634477615356, 0.3820531368255615, -0.4964551329612732, -0.11611676961183548, -0.600681722164154, 0.2855410873889923, 0.3623613119125366, 0.007934195920825005, -0.3701264560222626, -0.07572325319051743, -0.11241309344768524, -0.12822319567203522, -0.034695789217948914, -0.1132255271077156, 0.09160441905260086, -0.08476375043392181, 0.043071091175079346, 0.1301848590373993, -0.21629662811756134, -0.010274829342961311, 0.14538484811782837, 0.15649808943271637, -0.7002260088920593, 0.41184908151626587, -0.7093289494514465, -0.33443495631217957, -0.43557775020599365, 0.043285030871629715, 0.45044469833374023, -0.2365313619375229, 0.5585976243019104, 0.3812403082847595, 0.35930052399635315, 0.37128856778144836, 0.10896666347980499, 0.2811318635940552, 0.09803943336009979, -0.0015655596507713199, -0.11935510486364365, -0.4183950126171112, 0.15801511704921722, -0.6680350303649902, -0.6889281272888184, 0.055201899260282516, 0.12416236847639084, 0.051964156329631805, 1.0909565687179565, 0.679928183555603, 0.1323913335800171, 0.158929243683815, -0.06571672856807709, 0.08987029641866684, -0.15069006383419037, 0.0787869393825531, -0.17407341301441193, 0.3671424686908722, -0.08502413332462311, -0.16710631549358368, 0.079661063849926, 0.3340534567832947, 0.2634616792201996, -0.3505653440952301, -0.17751936614513397, -0.450930118560791, 0.05129919573664665, -0.04222529008984566, -0.2532747685909271, -0.1551123857498169, 0.0982368066906929, -0.17161911725997925, -0.12333279848098755, -0.01979394443333149, -0.4429999589920044, -0.0030232027638703585, 0.7559818029403687, -0.34168514609336853, -0.01825478859245777, -0.3294666111469269, -0.05125582590699196, -0.8990771770477295, -0.36923205852508545, 0.5890353322029114, -0.04979319870471954, 0.07384499907493591, -0.06361488997936249, 0.018838748335838318, -0.34658607840538025, -0.08301063627004623, 0.30591896176338196, -0.22164912521839142, -0.030405722558498383, -0.047685407102108, 0.0522373802959919, -0.17520779371261597, 0.10586612671613693, -0.09093913435935974, -0.05173787847161293, 0.28501707315444946, -0.11939362436532974, -0.21858856081962585, -0.10467962175607681, 0.002617808524519205, -0.08077207207679749, 0.10828427225351334, -0.04695072025060654, -0.3626006543636322, -0.3108019232749939, 0.06445103883743286, 0.211423859000206, -0.006619029678404331, -0.18800976872444153, -0.13980481028556824, 0.18723879754543304, -0.11299113929271698, -0.14537295699119568, 0.23812901973724365, 0.09183017164468765, 0.15928871929645538, -0.031192533671855927, 0.07373766601085663, -0.09550604969263077, 0.09061416983604431, -0.007517962250858545, 0.11303669959306717, 0.1052151545882225, -0.0713881254196167, 0.15844260156154633, 0.17695622146129608, -0.02661597728729248, -0.15713177621364594, -0.12522880733013153, -0.06100635975599289, 0.24470025300979614, 0.1859814077615738, -0.0749189555644989, 0.05091153457760811, -0.5479215383529663, -0.058454468846321106, -0.01596994884312153, -0.12921752035617828, -0.14493714272975922, 0.16342706978321075, -0.0774364247918129, 0.13845016062259674, 0.26688525080680847, -0.3242727220058441, -0.2278120368719101, 0.30891063809394836, -0.3717908263206482, -0.038983870297670364, 0.46116214990615845, 0.3301710784435272, -0.2987760007381439, -0.27844780683517456, -0.4603254199028015, 0.24623163044452667, 0.2637737989425659, 0.20129136741161346, -0.048907384276390076, -0.05412312224507332, -0.18662722408771515, 0.26436662673950195, 0.12941165268421173, 0.44400909543037415, -0.04841059446334839, -0.35057395696640015, -0.5710613131523132, -0.08787086606025696, 0.36289364099502563, -0.1353926658630371, 0.0779571682214737, 0.17862601578235626, -0.05999532714486122, -0.2431570142507553, 0.0016816043062135577, 0.1144021600484848, 0.4728652834892273, 0.03988715261220932, 0.20789875090122223, 0.2347041815519333, -0.15430155396461487, -0.08418889343738556, -0.1032368540763855, 0.15937694907188416, 0.07513289153575897, 0.17902633547782898, -0.032146621495485306, -0.2831411361694336, 0.033370111137628555, 0.16526786983013153, -0.03479887917637825, 0.15142317116260529, -0.29919368028640747, -0.04498513415455818, 0.37565746903419495, 0.054131779819726944, 0.3341796100139618, -0.100958913564682, 0.08914757519960403, -0.2662939727306366, 0.16790567338466644, 0.18209317326545715, 0.07989224046468735, -0.014469516463577747, 0.006677520927041769, -0.12626348435878754, -0.020347317680716515, 0.14556509256362915, 0.01626351661980152, 0.22874851524829865, -0.0796022042632103, -0.08906678110361099, 0.022321198135614395, 0.2119070142507553, 0.25407305359840393, -0.10986318439245224, -0.3003315329551697, -0.20727403461933136, -0.20019955933094025, 0.25283271074295044, -0.3488621413707733, 0.1618705689907074, 0.36871472001075745, 0.3359169661998749, -0.1836012601852417, 0.07240638136863708, -0.37692663073539734, 0.043045107275247574, 0.23090238869190216, 0.1963758021593094, 0.11094222962856293, -0.3304900825023651, -0.13183116912841797, -0.052347276359796524, 0.08685430884361267, 0.24602682888507843, 0.1903260201215744, -0.3228951394557953, -0.020057447254657745, 0.06157097965478897, 0.14172965288162231, -0.26511049270629883, -0.4580734372138977, 0.37510350346565247, -0.19646012783050537, 0.11041533946990967, 0.2037181556224823, 0.3887490928173065, 0.04207979142665863, 0.07255914062261581, -0.29346561431884766, -0.01148386299610138, 0.042886026203632355, 0.049759481102228165, 0.0626819059252739, 0.026845669373869896, -0.2537708878517151, 0.12737269699573517, -0.06645388901233673, 0.0707487091422081, 0.11606327444314957, -0.2833395004272461, -0.05186961218714714, 0.013917690142989159, 0.39960208535194397, 0.14759381115436554, 0.008631803095340729, 0.06073339283466339, 0.1641969531774521, -0.18656867742538452, -0.11884883046150208, -0.07629454135894775, 0.0015909501817077398, 0.23231200873851776, 0.3854030668735504, 0.13510370254516602, -0.2521154284477234, -0.25331902503967285, -0.05132780596613884, -0.06990249454975128, 0.10657916218042374, 0.0641569197177887, 0.09151289612054825, -0.17709635198116302, 0.051264453679323196, 0.07642271369695663, 0.35591158270835876, -0.20847199857234955, -0.3673209846019745, 0.09704167395830154, 0.22887711226940155, -0.0332198403775692, 0.10244803130626678, 0.022436557337641716, -0.04225792735815048, 0.1388557404279709, 0.0459568165242672, -0.8191707134246826, -0.5430936217308044, 0.40262487530708313, -1.0518053770065308, 0.6797804236412048, 0.5683063268661499, 0.6713721752166748, -0.7046149373054504, 0.22773827612400055, -0.13962431252002716, 1.3814738988876343, -0.06767276674509048, -0.4890126883983612, 0.5794849395751953, 0.3774486780166626, -0.11088182032108307, -0.22524718940258026, -0.5996100902557373, -0.41317984461784363, -0.3016929030418396, 0.5596032738685608, -0.1892073005437851, -0.3733164966106415, 0.357432097196579, 0.4399012327194214, 0.09609343111515045, 0.3049410581588745, -0.1032588928937912, -0.3559309244155884, -0.1290639489889145, -0.33290475606918335, -0.18224430084228516, -0.014072680845856667, -0.29613062739372253, 0.5143493413925171, -0.21436473727226257, -0.010950515046715736, 0.3696412742137909, 0.41404202580451965, 0.13579967617988586, 0.25451090931892395, -0.15523453056812286, -0.5256120562553406, -0.20339170098304749, -0.0025052293203771114, -0.41145196557044983, 0.048625461757183075, 0.12066394835710526, -0.27455461025238037, 0.3119649589061737, 0.46904417872428894, 0.09665890783071518, 0.3839488923549652, 0.1289471536874771, 0.2669876217842102, -0.31939569115638733, 0.2629454731941223, 0.20560847222805023, -0.48393771052360535, -0.23748329281806946, 0.012022935785353184, -0.7186088562011719, -0.2779071629047394, -0.42632612586021423, 0.06036858633160591, -0.4724636673927307, 0.0010793472174555063, 0.3600466251373291, 0.2315005660057068, -0.2340089976787567, -0.3685731291770935, 0.1013416051864624, -0.00811006035655737, 0.2520170211791992, 0.10733101516962051, 0.07836826890707016, 0.11982444673776627, 0.02167803794145584, 0.12243086099624634, 0.22391505539417267, -0.49502435326576233, -0.49026891589164734, 0.24598559737205505, 0.38936883211135864, -0.06683937460184097, -0.1518048644065857, -0.06624326854944229, -0.041846729815006256, 0.051938388496637344, 0.05150073021650314, -0.22873494029045105, 0.011927676387131214, -0.16019606590270996, 0.5481386780738831, -0.2531757056713104, 0.3711598813533783, -0.03250710293650627, 0.09484384208917618, -0.12411881238222122, 0.23649027943611145, -0.06590238958597183, 0.2004774957895279, 0.0609273761510849, 0.04730399698019028, -1.1223827600479126, -0.01483787503093481, 0.06791427731513977, 0.18469880521297455, 0.17833326756954193, -0.0519997663795948, -0.38203921914100647, -0.10554477572441101, -0.0022186352871358395, -0.4932950735092163, -0.02621043287217617, 0.08582787215709686, 0.7139235734939575, -0.1622159332036972, 0.19208982586860657, -0.35324177145957947, 0.13317008316516876, 0.21144503355026245, 0.08377673476934433, -0.10883884131908417, 0.19565315544605255, 0.34334370493888855, -0.018181513994932175, 0.021004322916269302, -0.1379600316286087, 0.13875001668930054, -0.1738651841878891, -0.18310546875, 0.10033909231424332, 0.35901665687561035, 0.33689361810684204, 0.15004967153072357, -0.06501185148954391, 0.01111603807657957, -0.14060205221176147, 0.06834319978952408, -0.08940734714269638, -0.07173031568527222, 0.06705426424741745, 0.08272244781255722, -0.13741111755371094, 0.04556744545698166, 0.29914769530296326, 0.09259875118732452, -0.3352102041244507, -0.6069216728210449, 0.01190116722136736, 0.13190850615501404, -0.3799397647380829, -0.4429723620414734, -0.6273864507675171, 0.3992154896259308, 0.19657881557941437, -0.23080307245254517, -0.11896892637014389, -0.27279332280158997, 0.20535235106945038, 0.2156827598810196, 0.1556020826101303, -0.4116031229496002, -0.286071240901947, 0.26073384284973145, 0.601930558681488, 0.3499715030193329, 0.12526719272136688, -0.3287644386291504, -0.10527131706476212, -0.20184405148029327, 0.18789470195770264, -0.00336109334602952, -0.059032537043094635, -0.0595940537750721, 0.9251471161842346, 0.6908842325210571, -0.03463103622198105, -0.5776611566543579, -0.0021006003953516483, -0.006623287219554186, 0.33897456526756287, 0.017862627282738686, -0.16627687215805054, -0.1818646490573883, 0.6252966523170471, 0.25794053077697754, 0.2641725540161133, -0.4765687584877014, 0.22926102578639984, -0.2609705626964569, 0.38644856214523315, 0.1515478491783142, 0.3602951169013977, -0.44741302728652954, -0.3323298692703247, -0.16273710131645203, -0.01210497971624136, -0.06574507057666779, 0.18017546832561493, 0.08868516981601715, 0.02591143548488617, -0.0032712561078369617, 0.1806088536977768, 0.054247088730335236, 0.08868855983018875, 0.07791902124881744, 0.2006227672100067, 0.23624056577682495, -0.30210837721824646, 0.046855054795742035, -0.3331877887248993, -0.18607020378112793, 0.030718034133315086, -0.10702396929264069, 0.005876346956938505, -0.093438521027565, -0.23291786015033722, 0.10722696036100388, -0.020959006622433662, -0.10221061110496521, 0.03981973975896835, -0.0812336876988411, -0.020143812522292137, 0.12205059826374054, 0.4445083737373352, -0.2309427708387375, -0.05713365972042084, 0.09314797073602676, 0.0407961905002594, -0.08452212065458298, -0.27112141251564026, -0.28301236033439636, 0.00927117932587862, 0.09656112641096115, -0.0013762768357992172, 0.07463201880455017, -0.4359879195690155, -0.19944125413894653, -0.13256822526454926, 0.09468339383602142, 0.22637470066547394, -0.027047783136367798, -0.23089474439620972, -0.3985843062400818, -0.043653011322021484, 0.2998414933681488, 0.1309872567653656, -0.250173956155777, 0.005777042359113693, -0.22903510928153992, 0.08879948407411575, 0.06978067010641098, 0.04056944698095322, 0.07589179277420044, -0.24474242329597473, -0.27402326464653015, -0.19457466900348663, 0.3570095896720886, -0.00379547500051558, 0.265903502702713, -0.09860362857580185, -0.09714417904615402, -0.1828281581401825, 0.0529194176197052, 0.19009359180927277, 0.14237239956855774, -0.39051538705825806, -0.3201557993888855, -0.14816227555274963, 0.3283756375312805, 0.01958988979458809, -0.028168410062789917, -0.01043720357120037, -0.04523182660341263, 0.1510027050971985, 0.13391804695129395, 0.06722451001405716, -0.00038732399116270244, -0.7673454284667969, 0.48231983184814453, -0.34737899899482727, -0.4904876947402954, 0.4681197702884674, 0.7483774423599243, -0.8505584001541138, -0.024385815486311913, 0.3206106722354889, -0.01316648069769144, 0.4137013852596283, -0.4887896180152893, -0.3006768822669983, 0.267270565032959, 0.16096249222755432, 0.0750463530421257, -0.19310380518436432, -0.38198524713516235, 0.0392506904900074, -0.30391186475753784, 0.34856536984443665, 0.339354008436203, 0.11484870314598083, 0.3642180562019348, -0.11060462892055511, 0.0003938563750125468, 1.0976159572601318, 0.13062982261180878, -0.1101992130279541, 0.08241142332553864, 0.7451680302619934, 0.18040728569030762, 0.28500738739967346, -0.3995152711868286, 0.05045279860496521, -0.48142918944358826, 0.016627950593829155, 0.01621309481561184, 0.050616953521966934, -0.11251035332679749, 0.13918861746788025, -0.23641815781593323, -0.2668640613555908, 0.9220602512359619, -0.18286235630512238, 0.35909223556518555, -0.4960358738899231, -0.008102649822831154, -0.20665842294692993, -0.3354173004627228, 0.2920839190483093, -0.4643804430961609, 0.12465830892324448, -0.2107016146183014, 0.5733451843261719, 0.5668609142303467, -0.4276500940322876, -0.11039106547832489, -0.25030097365379333, 0.006173385307192802, 0.3298904597759247, -0.01729022152721882, -0.43148916959762573, -0.11902833729982376, -0.14901655912399292, 0.17092879116535187, -0.15516862273216248, -0.2179446518421173, 0.08852182328701019, 0.10500311106443405, -0.25927525758743286, -0.35890766978263855, -0.0562589094042778, -0.18977124989032745, -0.11200417578220367, -0.07348468899726868, -0.2516815662384033, 0.030257562175393105, -0.1747487634420395, -0.19494612514972687, -0.1550801694393158, -0.2918519079685211, -0.03319019079208374, 0.3005841374397278, 0.22171857953071594, 0.08209064602851868, -0.09177350997924805, -0.04997782036662102, 0.23776262998580933, -0.024992810562253, -0.05961805209517479, -0.30207669734954834, -0.1200033649802208, -0.19795943796634674, -0.3166418969631195, 0.1523715704679489, 0.37068745493888855, 0.0016006052028387785, 0.059778835624456406, -0.03363731876015663, -0.045203179121017456, -0.23835454881191254, 0.12461522221565247, -0.2907516360282898, 0.23297937214374542, 0.6478623747825623, 0.19284306466579437, -0.31425124406814575, 0.06591562926769257, 0.2533470094203949, 0.0799604207277298, 0.14543619751930237, -0.2064555287361145, -0.12770268321037292, 0.10466763377189636, 0.28766074776649475, 0.08464469760656357, -0.5065754055976868, 0.022356202825903893, -0.1278418004512787, 0.21365784108638763, -0.20222122967243195, -0.07115540653467178, -0.19334262609481812, 0.2605055868625641, -0.4431247115135193, -0.06644947081804276, -0.19276487827301025, 0.21347247064113617, 0.13845746219158173, 0.17028333246707916, -0.12892448902130127, 0.11497156322002411, -0.12323667854070663, 0.5282923579216003, -0.13328923285007477, -0.23409567773342133, -0.2831149697303772, 0.15855737030506134, 0.17897015810012817, 0.18440400063991547, -0.6216022968292236, 0.11167284101247787, 0.0908023789525032, 0.10425166040658951, -0.08674672245979309, 0.015538997948169708, -0.6573171019554138, 0.06584171205759048, -0.3401576280593872, 0.18518000841140747, -0.01357900071889162, 0.17640320956707, 0.3089856803417206, 1.0479367971420288, -0.42448312044143677, -0.4811452031135559, 0.25819772481918335, -0.1500043123960495, 0.24903333187103271, -0.07017793506383896, -0.1383451223373413, -0.27320942282676697, 0.46947750449180603, 0.2786192297935486, 0.16557978093624115, -1.3026551008224487, -0.3580351769924164, -0.2167709916830063, 0.99946129322052, -0.5772473216056824, -0.03404635563492775, 0.07041411101818085, -0.09794910252094269, -0.15447857975959778, 0.3161214292049408, 0.13995951414108276, 0.32240334153175354, 0.4850565493106842, -0.21053919196128845, 0.09621749073266983, 0.017843320965766907, 0.19213487207889557, 0.21787002682685852, -0.10220418125391006, -0.14119505882263184, 0.16388119757175446, 0.1376086324453354, 0.042346615344285965, 0.3165337145328522, -0.5461958646774292, -0.4088609218597412, -0.3301493227481842, 0.7317088842391968, -0.13557377457618713, -0.15222831070423126, -0.35610485076904297, -0.2917902171611786, -0.3005627989768982, -0.018587766215205193, 0.051664650440216064, -0.1581423580646515, -0.004294067621231079, 0.21691839396953583, 0.23785537481307983, -0.2583829164505005, 0.23374900221824646, 0.1619178056716919, 0.26402440667152405, -0.3351497948169708, 0.05851992219686508, -0.04875641688704491, -0.06526782363653183, -0.32507002353668213, 0.054135143756866455, 0.018787387758493423, 0.19435161352157593, 0.14730054140090942, -0.025124216452240944, -0.1292433887720108, 0.09503641724586487, 0.14253005385398865, 0.5307489633560181, 0.26265764236450195, -0.27340251207351685, -0.5405951142311096, 0.01720460131764412, 0.10445250570774078, 0.33051803708076477, 0.270902156829834, 0.12081193923950195, 0.039024755358695984, -0.16647712886333466, -0.22143766283988953, 0.19697898626327515, 0.32185858488082886, -0.06947191804647446, -0.12280651181936264, 0.09510920941829681, 0.31813445687294006, 0.11559184640645981, 0.025353947654366493, 0.7300347685813904, 0.7519822120666504, 0.13007867336273193, -0.030465155839920044, -0.1744481921195984, -0.10820375382900238, -0.07840541005134583, -0.13414926826953888, 0.06488397717475891, -0.0015536141581833363, -0.038931455463171005, -0.0838119387626648, -0.004594033118337393, 0.15631969273090363, 0.2972666919231415, 0.12067974358797073, -0.16339044272899628, -0.24388065934181213, -0.12324360013008118, -0.13024520874023438, 0.24354751408100128, 0.22168442606925964, 0.1967572122812271, -0.11639472097158432, 0.1772548407316208, -0.08292912691831589, -0.49954870343208313, -0.19417345523834229, 0.3803572654724121, 0.09762810170650482, -0.0074124932289123535, -0.06653235107660294, -0.04626466706395149, -0.06257469952106476, 0.04459249973297119, -0.036140114068984985, 0.13070988655090332, -0.1538253277540207, -0.5275298953056335, -0.7178953886032104, -0.18444308638572693, -0.576180100440979, 0.949616014957428, 0.1277632862329483, -0.3543979227542877, -0.417783260345459, 0.3486163914203644, 0.04260373115539551, -0.12009058147668839, 0.4615965783596039, 0.4576089084148407, 0.06614582240581512, 0.28179892897605896, 0.10211551934480667, 0.3818434774875641, 0.08217916637659073, 0.7481589317321777, -0.19766069948673248, 0.2165740728378296, 0.6618103981018066, -0.1977992206811905, 0.3226885497570038, 0.014704974368214607, 0.05522090196609497, -0.11314792931079865, 0.17758986353874207, -0.07688353210687637, -0.20891369879245758, 0.020150301977992058, -0.250489205121994, 0.27436235547065735, 0.12317175418138504, 0.5483823418617249, 0.10407590121030807, 0.41549456119537354, 0.5527965426445007, 0.01200287975370884, -0.10064470767974854, -0.5054866671562195, 0.38605502247810364, 0.6180906295776367, 0.14752790331840515, -0.8073382377624512, 0.07031364738941193, -0.23856954276561737, -0.5175233483314514, -0.16720466315746307, 0.34777408838272095, 0.16624779999256134, 0.09106488525867462, 0.5981205701828003, -0.27634376287460327, -0.16844387352466583, -0.04019796848297119, 0.9796891212463379, 0.04727194458246231, 0.30904242396354675, -0.3968230187892914, -0.3972629904747009, 0.5697561502456665, -0.2343466728925705, 1.0389673709869385, 0.3231344521045685, -0.15522858500480652, 0.21346329152584076, -0.2840583324432373, 0.23487085103988647, 0.1274622082710266, 0.2017223984003067, 0.5309953689575195, 0.039394132792949677, -0.08201310783624649, -0.19054299592971802, 0.08633194863796234, 0.1358322650194168, 0.024798447266221046, 0.3083895742893219, 0.035834845155477524, 0.06628919392824173, 0.27640044689178467, 0.41705071926116943, -0.14078696072101593, -0.15947312116622925, 0.21001079678535461, 0.2376411408185959, 0.04446173459291458, -0.2979525625705719, -0.005359000060707331, -0.15035291016101837, 0.5359988808631897, 0.2465316206216812, 0.20183323323726654, 0.28953665494918823, -0.05831008404493332, -0.21583913266658783, -0.3997556269168854, -0.1490209549665451, -0.18084946274757385, 0.19685158133506775, -0.1788889765739441, -0.2795966863632202, 0.39444684982299805, 0.012271453626453876, 0.14123114943504333, -0.14545321464538574, -0.06861192733049393, 0.48155567049980164, -0.5640629529953003, -0.1919047236442566, 0.1523657590150833, -0.4462781548500061, 0.136058047413826, 0.23195864260196686, -1.2735679149627686, -0.22303541004657745, -0.6198987364768982, -1.3007584810256958, 0.18528243899345398, -0.055578477680683136, -0.7750322222709656, 0.3563188910484314, 0.5586758255958557, -0.6336129307746887, 0.31734636425971985, 0.3320894241333008, -0.6739850044250488, 0.05640906095504761, 0.7805348634719849, 0.27877333760261536, -0.2877890467643738, -0.05471300333738327, 0.04765961319208145, 0.2951186001300812, 0.1297118365764618, -0.011278987862169743, -0.2356414943933487, 0.3847559094429016, 0.10718546062707901, 0.8194898366928101, -0.5938944816589355, -0.3468798100948334, -0.13533081114292145, 1.2518675327301025, -0.46731746196746826, -1.0535681247711182, -1.0699868202209473, 0.1887190341949463, -0.5596025586128235, 0.19200915098190308, 0.183942973613739, 0.10029423981904984, 0.9162030816078186, 0.18204514682292938, -0.2594783902168274, -0.25386521220207214, 0.09779329597949982, -0.1069600060582161, 0.08362305909395218, 0.37861815094947815, -0.06696917116641998, -0.04262039065361023, 0.03118370659649372, 0.5353527069091797, -0.6500623822212219, 0.2542301416397095, -0.02730030007660389, 0.42852160334587097, -0.17826558649539948, -0.44405117630958557, -0.8800250887870789, -0.09764547646045685, -0.4533698558807373, -0.2087024599313736, -0.38467076420783997, -0.08308172971010208, -0.039559245109558105, 0.03122616373002529, -0.008187785744667053, 0.025487123057246208, 0.1449453979730606, 0.30929240584373474, 0.07956894487142563, -0.12472862750291824, -0.22835715115070343, 0.16762439906597137, -0.32949966192245483, 0.2617625296115875, -0.6371575593948364, 0.28583887219429016, 0.02283942699432373, 0.8866581320762634, 0.17491143941879272, -0.3310032784938812, -0.28561824560165405, -0.3374638855457306, -0.08458797633647919, -0.0379486046731472, -0.3190329372882843, -0.16578930616378784, 0.19426004588603973, 0.1465708464384079, -0.15945278108119965, 0.06921771168708801, -0.15072238445281982, 0.156178817152977, 0.059257347136735916, 0.05605239421129227, 0.05740104988217354, 0.23234188556671143, -0.06978142261505127, 0.22798950970172882, -0.34836581349372864, 0.22541984915733337, 0.10186071693897247, 0.38656163215637207, 0.18498454988002777, -0.2130889892578125, -0.6756786108016968, -0.01848774030804634, -0.5003789067268372, -0.1993887722492218, 0.11723417043685913, 0.359731525182724, 0.22701364755630493, -0.3108804225921631, 0.15495800971984863, 0.1421898752450943, -0.05561065673828125, 0.028234431520104408, -0.22774235904216766, -0.015519719570875168, -0.01366894319653511, 0.2583371102809906, -0.02455296367406845, -0.12448712438344955, -0.11211992800235748, 0.621051549911499, -0.11602581292390823, -0.20385369658470154, -0.2187235802412033, 0.2517332434654236, -0.1286943256855011, 0.4066380560398102, -0.2335723638534546, 0.2355082631111145, 0.010228678584098816, 0.22005730867385864, -0.20566415786743164, -0.009293871931731701, 0.16306523978710175, -0.17704826593399048, 0.028198154643177986, -0.08763524144887924, 0.057101018726825714, 0.14754468202590942, 0.07818783074617386, -0.3997792601585388, 0.0124171432107687, -0.0554712638258934, -0.0166777316480875, -0.2558979094028473, 0.15604856610298157, -0.20898017287254333, 0.04464206472039223, 0.07160847634077072, -0.6217472553253174, 0.31232887506484985, 0.15456797182559967, -0.00031211241730488837, 0.2438027709722519, -0.050049811601638794, -0.022417251020669937, -0.06510528177022934, -0.15344931185245514, -0.17178575694561005, 0.224373459815979, 0.059749677777290344, 0.007182436995208263, -0.26807376742362976, 0.587410032749176, 0.2282721996307373, -0.12129195779561996, -0.39415109157562256, 0.04192342981696129, -0.6023216843605042, 0.2017263025045395, 0.2745482325553894, -0.08239226788282394, -0.6652476787567139, -0.6356966495513916, -0.6307439804077148, -0.7868450880050659, 0.058832429349422455, 0.10705380141735077, 0.41740038990974426, 0.33760327100753784, 0.20781604945659637, 0.2284320890903473, 0.47400540113449097, 0.41684627532958984, -0.013409115374088287, -0.29890865087509155, 0.17000582814216614, -0.3927072286605835, -0.1932799518108368, -0.1073981299996376, 0.3336730897426605, 0.41767606139183044, 0.17001263797283173, 0.22740434110164642, -0.07563881576061249, -1.5644029378890991, -0.5978417992591858, -0.39831840991973877, 0.42434701323509216, 0.27874717116355896, -0.2741602659225464, 0.269733190536499, -0.7583109140396118, -1.6549246311187744, 0.629005491733551, 0.07634160667657852, -0.9418101906776428, -0.4649931788444519, 0.5687810778617859, 0.413054883480072, -0.3315516412258148, -0.5693292617797852, 0.7708644866943359, 0.43039417266845703, -0.4951000213623047, -0.33074870705604553, -0.2114000916481018, 0.014012562111020088, -0.14814719557762146, -0.20640908181667328, -0.839793860912323, -0.09773914515972137, 0.8627532720565796, 0.29796653985977173, 1.346971035003662, -0.05797499418258667, -0.08751623332500458, -0.30483120679855347, 0.024445224553346634, -0.004163807258009911, 0.4093187153339386, -0.14762182533740997, -0.484861820936203, -0.6922258734703064, -0.08542293310165405, 0.36654436588287354, -0.044397514313459396, -0.32024115324020386, -0.08957367390394211, -0.24811601638793945, -0.17226827144622803, 0.17116442322731018, -0.1871662139892578, 0.07331595569849014, -0.03240703418850899, -0.1318506896495819, 0.18567878007888794, -0.06802437454462051, 0.13452200591564178, 0.25707411766052246, -0.03137324005365372, 0.4084809720516205, 0.07157448679208755, 0.12007706612348557, 0.18250635266304016, -0.006811844650655985, -0.08255574107170105, -0.045485060662031174, -0.39277616143226624, -0.01864403858780861, -0.11140698194503784, -0.1520146131515503, 0.06684385240077972, 0.23101702332496643, 0.3176543116569519, -0.0018248099368065596, 0.11626484245061874, 0.241532102227211, -0.052325814962387085, 0.187913179397583, 0.11824651807546616, 0.034780293703079224, 0.2292155623435974, -0.02900240197777748, 0.20085272192955017, -0.19308719038963318, -0.26948070526123047, 0.06126546487212181, 0.0027891304343938828, 0.013565425761044025, 0.042296648025512695, 0.034320611506700516, 0.1121353730559349, -0.2713702619075775, 0.031937286257743835, 0.07984117418527603, -0.21594828367233276, 0.0768970251083374, 0.4430246651172638, 0.122640460729599, 0.2870359420776367, 0.08183310180902481, 0.08514630794525146, 0.266297310590744, -0.14494295418262482, 0.06994731724262238, 0.05834833160042763, -0.19977591931819916, 0.020891977474093437, 0.06834769248962402, -0.4277871549129486, -0.16442064940929413, -0.3335675895214081, -0.7454556226730347, 0.08176492154598236, -0.03215916082262993, -0.4756518304347992, 0.14847999811172485, 0.3345699608325958, -0.06416372954845428, 0.032652921974658966, 0.028929516673088074, -0.11168508231639862, 0.33866795897483826, 0.176580548286438, -0.0820934921503067, -0.02654827944934368, 0.08432447910308838, 0.48523738980293274, -0.022862523794174194, 0.01574375480413437, -0.28358834981918335, -0.13676658272743225, 0.15944930911064148, -0.18286751210689545, -0.0776057094335556, -0.34944114089012146, 0.39456674456596375, 0.05974036827683449, 0.08092654496431351, -1.2298427820205688, 0.22167076170444489, 0.2967633306980133, 0.9607895016670227, -0.005353072192519903, 0.03791467845439911, -0.027408001944422722, -0.13600017130374908, -0.16689319908618927, -0.8701726794242859, 0.006890389136970043, -0.20754921436309814, -0.12889905273914337, 0.10602930188179016, -0.034161172807216644, 0.4235650599002838, 0.05480896309018135, -0.0434156209230423, 0.46498194336891174, 0.03864847868680954, 0.12312762439250946, -0.8823555111885071, -0.0064077856950461864, 0.14764419198036194, 0.13749176263809204, -0.25826287269592285, -0.17858010530471802, 0.43588900566101074, -0.07259538769721985, 0.2625819742679596, 0.21643851697444916, -0.07798361778259277, -0.051233500242233276, 0.012429694645106792, -0.12709300220012665, -0.1934574842453003, 0.1218656450510025, -0.12340167164802551, 0.5665944218635559, 0.3459774851799011, 0.043886423110961914, 0.201147198677063, 0.08083725720643997, 0.12988944351673126, -0.2599737048149109, -0.052203867584466934, -0.010155132040381432, 0.3969928026199341, -0.32332366704940796, -0.09819779545068741, -0.8237560987472534, -0.09781578183174133, -0.061288777738809586, 0.20671223104000092, -0.07416462153196335, -0.10717252641916275, -0.008135264739394188, 0.11360888183116913, 0.008216265588998795, -0.012168657965958118, 0.2196938544511795, -0.15537495911121368, 0.11078014224767685, 0.3834412097930908, -0.02711726725101471, 0.08137762546539307, -0.04996132105588913, -0.0742623507976532, -0.08932767808437347, -0.0030226472299546003, -0.39172014594078064, 0.08346941322088242, -0.16973476111888885, -0.42946657538414, 0.033679209649562836, -0.0996289849281311, -0.04175511375069618, 0.11373095214366913, 0.4436424970626831, -0.02761724963784218, -0.047522082924842834, -0.30468910932540894, -1.0097014904022217, -0.1277390867471695, -0.23654961585998535, 0.40314823389053345, -0.12057840079069138, -0.02715054526925087, 0.5090398192405701, -0.29051801562309265, -0.07252812385559082, 0.36236900091171265, 0.32997921109199524, 0.3564351499080658, -0.8044477701187134, 0.22280468046665192, 0.24728840589523315, 0.36677294969558716, -0.1288025975227356, -0.23061354458332062, 0.4751429855823517, 0.2803622782230377, 0.12577174603939056, -0.46905717253685, 0.1333547681570053, -0.17875675857067108, -0.22580336034297943, -0.16735851764678955, -0.22865283489227295, 0.12365253269672394, 0.10447978228330612, -0.13505670428276062, -0.13661149144172668, 0.2049192637205124, 0.31765347719192505, 0.8928177356719971, 1.0122456550598145, 0.37924879789352417, -1.0679004192352295, -0.606274425983429, 0.4410320222377777, 0.6555070281028748, 0.3998448848724365, 0.11616645008325577, 0.3139214515686035, 0.7654098868370056, 0.2890167534351349, -0.0778997391462326, 0.20631079375743866, 0.1256169229745865, 0.10634665936231613, 0.014311317354440689, -0.2334659993648529, 0.45568254590034485, 0.36535945534706116, -0.378889799118042, 0.22987666726112366, -0.38191699981689453, -0.07498204708099365, 0.2397005558013916, 0.36057087779045105, 0.19494400918483734, -0.014856723137199879, -0.05440216138958931, 0.24365845322608948, -0.28615134954452515, 0.5870656371116638, 0.4272800385951996, -0.20592842996120453, 0.08035924285650253, -0.12225321680307388, -0.3232295513153076, 0.41442209482192993, 0.5456058979034424, 0.19567202031612396, -0.1346253752708435, -0.3389151692390442, 0.5378862619400024, 0.045952390879392624, -0.685870349407196, -0.17190983891487122, 0.10115628689527512, -0.443743497133255, -0.3763445317745209, -0.29846635460853577, 0.008176812902092934, -0.6469526886940002, 0.3435623347759247, -0.06331580132246017, 0.6408348083496094, 0.5074039101600647, 0.3848104774951935, -0.2685346305370331, 0.046702638268470764, -0.5412300229072571, 0.4655356705188751, 0.24358032643795013, 0.07902703434228897, -0.3637861907482147, -0.4891526699066162, 0.37553733587265015, 0.04684140160679817, -0.3228095471858978, 0.2386564165353775, 0.18673348426818848, -0.07003356516361237, -0.15123845636844635, 0.2322482019662857, -0.1444261521100998, -0.0240009818226099, -0.1701430231332779, -0.09030691534280777, -0.2280692756175995, -0.22946514189243317, -0.3183501064777374, 0.1325053572654724, 0.16796104609966278, -0.24386757612228394, 0.04517645016312599, 8.62045562826097e-05, 0.21359173953533173, 0.2844410538673401, -0.0544234961271286, 0.007676588371396065, -0.25247466564178467, -0.19903114438056946, 0.15399011969566345, 0.1980503648519516, 0.23327785730361938, -0.07284288853406906, 0.16938340663909912, -0.12742115557193756, 0.11206299066543579, 0.3536248207092285, -0.30027955770492554, -0.06109705567359924, 0.17536598443984985, -0.039644479751586914, -0.1711239069700241, 0.030218295753002167, 0.007061552256345749, 0.0008552458020858467, -0.16761930286884308, 0.14703525602817535, 0.0077552576549351215, -0.018904734402894974, 0.17172448337078094, 0.09081362932920456, 0.14640410244464874, 0.0017289504176005721, -0.012369652278721333, 0.18995851278305054, 0.04558848589658737, -0.030697738751769066, -0.08405883610248566, 0.07116267830133438, 0.032962627708911896, 0.058723803609609604, 0.06668209284543991, -0.005725243128836155, 0.08576502650976181, 0.1430007368326187, -0.02887059934437275, -0.17520612478256226, -0.05240048095583916, -0.0687062069773674, -0.030964672565460205, -0.11744967848062515, 0.050098173320293427, 0.008667481131851673, 0.09061621129512787, -0.15518148243427277, 0.06655018031597137, 0.09789151698350906, -0.006228666286915541, 0.3419532775878906, -0.053663499653339386, 0.125799298286438, -0.1198946163058281, -0.012798739597201347, 0.047803670167922974, -0.0027094371616840363, -0.0029229065403342247, 0.1462026983499527, -0.03687053546309471, -0.020758962258696556, 0.23028221726417542, 0.5089909434318542, -0.05156771466135979, -0.3060164153575897, 0.28023260831832886, -0.006417051889002323, -0.09514547139406204, -0.18112853169441223, -0.15724970400333405, 0.3670329749584198, 0.1770966500043869, 0.07518821954727173, -0.3554091155529022, -0.043959423899650574, 0.0029429395217448473, 0.39276978373527527, 0.08210280537605286, 0.06527207791805267, 0.24681049585342407, -0.03676535189151764, 0.08946169167757034, -0.14078283309936523, -0.0050840904004871845, 0.041254542768001556, -0.3587253987789154, 0.05722520127892494, 0.13154900074005127, 0.11568760871887207, -0.10046902298927307, 0.029494639486074448, -0.11646919697523117, -0.05597860366106033, 0.09429395943880081, -0.14307506382465363, -0.023533858358860016, 0.07101485133171082, -0.06913435459136963, 0.21493254601955414, -0.005650843493640423, -0.09065146744251251, 0.03670734912157059, -0.005813304800540209, -0.09765586256980896, -0.24523992836475372, -0.580596923828125, 0.2840106785297394, -0.3621973395347595, -0.5258233547210693, -0.5520064234733582, -0.14632205665111542, 0.09910319000482559, 0.17657352983951569, 0.30320972204208374, 0.16385968029499054, -0.10638664662837982, -0.14162881672382355, -0.12067299336194992, 0.4263589382171631, -0.9678075909614563, 0.1237189993262291, 0.12646892666816711, -0.10992325842380524, 0.029364606365561485, 0.3588826656341553, 0.06007535010576248, -0.11983181536197662, 0.017257267609238625, 0.12925434112548828, 0.11923270672559738, 0.1368279904127121, -0.10063877701759338, -0.11538787186145782, 0.03651685267686844, 0.1527647078037262, -0.2093442678451538, -0.262299507856369, 0.1401260793209076, -0.23126976191997528, -0.0920494869351387, 0.09524723887443542, -0.5003919005393982, 0.03536920249462128, -0.14556534588336945, -0.151742085814476, -0.13178125023841858, 0.16707216203212738, 0.1410578042268753, -0.1258934587240219, -0.08411765843629837, 0.11179531365633011, 0.3577694594860077, -0.1217319667339325, 0.19828355312347412, -0.3103732466697693, 0.005178506951779127, -0.04053545370697975, 0.3284686207771301, -0.01930655725300312, 0.052102506160736084, 0.5508058667182922, 0.3949885368347168, -0.2507127523422241, 0.15353377163410187, -0.2909194529056549, 0.005924928467720747, 0.07609160244464874, 0.029017215594649315, 0.04161309078335762, 0.3313049376010895, 0.08760760724544525, 0.019953913986682892, 0.40570124983787537, -0.0495905876159668, -0.07958167791366577, 0.025615688413381577, -0.038219500333070755, 0.1459283083677292, -0.06187504902482033, 0.0753970667719841, -0.06652567535638809, -0.020758872851729393, 0.24325914680957794, -0.5258686542510986, 0.1594068706035614, -0.19120600819587708, 0.04597414284944534, 0.4986404776573181, 0.3796631097793579, -0.01350580807775259, -0.253345251083374, -0.1745661497116089, -0.11583403497934341, -0.2403756082057953, 0.2306690216064453, 0.31262338161468506, 0.24342839419841766, -0.19598029553890228, -0.09984657168388367, 0.1162441149353981, 0.1603352427482605, 0.16113191843032837, -0.3726675510406494, -0.5650085210800171, 0.2643318474292755, -0.3537604808807373, 0.09007767587900162, -0.12375732511281967, -0.011342394165694714, -0.4837343990802765, 0.1210695207118988, -0.32352739572525024, 0.0005427699652500451, 0.062039539217948914, -0.21904483437538147, 0.6309524178504944, -0.12437011301517487, -0.07976122945547104, -0.18393105268478394, 0.1166255995631218, -0.13376706838607788, 0.4274391829967499, 0.07348354160785675, -0.2239457666873932, 0.1226341649889946, -0.08270727097988129, -0.26428648829460144, -0.08319707959890366, -0.01646663434803486, 0.20952004194259644, 0.11451958119869232, 0.11785189807415009, -0.012192103080451488, -0.10290400683879852, 0.05778161436319351, 0.2525363266468048, 0.20251725614070892, -0.4410742521286011, 0.45622166991233826, -0.1435859352350235, 0.10989754647016525, 0.025850946083664894, 0.1481684148311615, -0.10913782566785812, -0.5570108294487, -0.22697022557258606, -0.03602886199951172, 0.1486038863658905, 0.08403962850570679, -0.5465891361236572, 0.1332082897424698, 0.159463033080101, -0.11689562350511551, -0.05297504737973213, 0.06578578799962997, 0.3614847958087921, 0.2756524085998535, 0.567634105682373, -0.4608033001422882, -0.0421576164662838, -0.15859419107437134, 0.08577270805835724, -0.01788032241165638, 0.20097748935222626, 0.2928375005722046, -0.46973729133605957, 0.08812849968671799, -0.07151149958372116, -0.06008628383278847, -0.05081820487976074, 0.13037627935409546, 0.4661487638950348, 0.43398600816726685, -0.32524168491363525, -0.09201008826494217, 0.24310745298862457, -0.05047231912612915, -0.29902347922325134, 0.39909595251083374, 0.4536750614643097, 0.26392662525177, -0.02485601045191288, -0.20442551374435425, 0.0241882111877203, 0.3094068169593811, 0.3109442889690399, 0.21814556419849396, -0.5261973142623901, -0.14189380407333374, 0.029102802276611328, 0.300716757774353, -0.3767737150192261, -0.48505130410194397, 0.03903622180223465, 0.23172637820243835, 0.1463777720928192, -0.013930834829807281, 0.9860184788703918, 0.5882142186164856, 0.3807888627052307, -0.17335745692253113, -0.275452196598053, -0.39593225717544556, -0.19071707129478455, -0.08987560868263245, 0.4043232500553131, 0.07565509527921677, -0.08932384848594666, -0.28288352489471436, 0.16573405265808105, 0.21181273460388184, 0.27497172355651855, 0.5219758152961731, 0.125034362077713, -0.33363062143325806, -0.09239359945058823, -0.04661737382411957, 0.42689669132232666, -0.3613205850124359, -0.02308461256325245, -0.2764761745929718, -0.12784983217716217, 0.08886638283729553, -0.5265556573867798, -0.3587956726551056, -0.056227296590805054, -0.004524951800704002, -0.33919578790664673, -0.045017194002866745, 0.10929331928491592, 0.1520061045885086, -0.10407073050737381, -0.31369292736053467, 0.2946968078613281, 0.02268991619348526, 0.3545168340206146, -0.09500616788864136, -0.347037672996521, -1.1105828285217285, -0.34361669421195984, 0.37468063831329346, 0.5172946453094482, -0.074710913002491, 0.3513680696487427, 0.6555244326591492, -0.10777010023593903, 1.0402640104293823, -0.13320179283618927, -0.009141325950622559, 0.2068503499031067, -0.37157243490219116, -0.050231970846652985, -0.22663134336471558, 0.07090847939252853, 0.0986723005771637, 0.3945688307285309, -0.09051598608493805, -0.0571502260863781, 0.1212412640452385, 0.21805214881896973, -0.3405117988586426, -0.4727284014225006, 0.16969381272792816, 0.06545225530862808, 0.25075763463974, 0.16726642847061157, -0.1810760647058487, 0.21421970427036285, -0.5611498951911926, 0.12909699976444244, 0.6293085813522339, 0.4457320272922516, -0.816210150718689, 0.006705480627715588, 0.06183161959052086, -0.12638330459594727, 0.26618650555610657, 0.1665651500225067, 0.26108840107917786, 0.30773764848709106, -0.47923099994659424, 0.5408186912536621, -0.11008156836032867, 0.17183609306812286, 0.01936297118663788, -0.2705276310443878, 0.3466780483722687, 0.2283886969089508, -0.26381915807724, -0.03747803717851639, -0.057109635323286057, 0.21255698800086975, 0.2995820939540863, 0.14118064939975739, 0.028146764263510704, 0.28239089250564575, -0.04251822456717491, 0.09267057478427887, 0.015970492735505104, 0.13316753506660461, -0.05972364917397499, 0.1153935045003891, 0.4219284951686859, -0.07948721200227737, -0.055068567395210266, -0.015371476300060749, -0.22154992818832397, -0.11277852207422256, -0.04721873253583908, 0.1094081923365593, -0.15860800445079803, -0.5482776165008545, 0.3694201707839966, -0.7964653968811035, -0.9373274445533752, 1.373803973197937, 0.7350708246231079, -0.3206239342689514, -0.34117287397384644, -0.07089557498693466, -0.11930982023477554, -0.5608848333358765, 0.2071957290172577, 0.47248217463493347, -0.37783336639404297, -0.1553443968296051, -0.22782158851623535, -0.26690441370010376, 0.03354370594024658, -0.30348849296569824, 0.39498186111450195, 0.06181151792407036, -0.07901357859373093, -0.19246837496757507, -0.18758204579353333, -0.30407586693763733, 0.14378976821899414, -0.2734566330909729, 0.43780219554901123, -0.4334748089313507, -0.06267435848712921, -0.16803501546382904, 0.01922498270869255, 0.4218548834323883, -0.30329999327659607, -0.29214033484458923, -0.03958936780691147, -0.19246496260166168, -0.4232810437679291, 0.1882738620042801, 0.2650836110115051, -0.4592093527317047, 0.45431333780288696, 0.27633389830589294, 0.11626192182302475, 0.36954545974731445, -0.19613255560398102, -0.05645529180765152, 0.2987539768218994, -0.10718560218811035, -0.25129207968711853, 0.0656687542796135, 0.2205042690038681, 0.015223945491015911, 0.5148972272872925, -0.11915433406829834, -0.004061305895447731, -0.2802961766719818, -0.2553485631942749, -0.3732203543186188, 0.057342302054166794, 0.42203977704048157, -0.0009699990041553974, 0.500565767288208, -0.40973764657974243, -0.15894180536270142, -0.45168501138687134, 0.1598222851753235, -0.48472145199775696, 0.007226449903100729, -0.21893925964832306, -0.017515059560537338, 0.10070482641458511, 0.14040520787239075, -0.27598702907562256, 0.45986542105674744, 0.16323967278003693, -0.023810341954231262, 0.30325835943222046, -0.37983381748199463, 1.0607109069824219, -0.17681841552257538, 0.5289064645767212, 0.7916653752326965, -0.4309100806713104, 1.457942008972168, 0.6485499143600464, -0.25394219160079956, 0.6254917979240417, -0.38166046142578125, 0.07712406665086746, 0.03164999932050705, 0.2781217396259308, -0.10519351810216904, -0.33974987268447876, 0.26645147800445557, -0.06873607635498047, -0.09738368541002274, 0.0484815388917923, 0.17493003606796265, 0.02726360782980919, -0.2200569212436676, 0.14529506862163544, 0.1076771542429924, -0.06634461134672165, 0.19044600427150726, 0.002322115935385227, 0.16294077038764954, 0.3401346802711487, 0.054532043635845184, 0.16423165798187256, 0.07577017694711685, 0.300625205039978, 0.08775945752859116, -0.3897254765033722, -0.019754990935325623, 0.24634452164173126, -0.04568075016140938, 0.3557349145412445, 0.05004359781742096, -0.11643846333026886, 0.5962299108505249, 0.12567713856697083, -0.20799338817596436, 0.027247115969657898, -0.02764992229640484, -0.12862475216388702, 0.0766340047121048, -0.10386085510253906, -0.1500873565673828, 0.06308699399232864, 0.11617441475391388, -0.20906633138656616, 0.2104591578245163, -0.44941067695617676, -0.14297939836978912, -0.10443892329931259, 0.06236211955547333, -0.13094459474086761, 0.4042287766933441, 0.026019366458058357, -0.0336957648396492, -0.0002387401764281094, 0.10985557734966278, -0.333479642868042, -0.1294320970773697, 0.009138460271060467, 0.14296075701713562, 0.011320048943161964, -0.42753636837005615, -0.24784478545188904, 0.057683128863573074, -0.1929841935634613, -0.057831019163131714, -1.13002347946167, 0.19978684186935425, 0.7968237996101379, -0.38398680090904236, 0.7254112362861633, 0.1450263261795044, -0.14158864319324493, -0.1181105375289917, 0.16274601221084595, 0.5669355988502502, 0.11094759404659271, -1.0529086589813232, 0.234938383102417, 0.019738517701625824, 0.5062823295593262, 0.08609835803508759, -0.19306351244449615, 0.3528634309768677, -0.03301571309566498, -0.03590351343154907, 0.225886732339859, -0.23266687989234924, 0.2441408932209015, -0.293234646320343, 0.17357182502746582, 0.07698046416044235, 0.33198732137680054, 0.3419191837310791, 0.11762770265340805, -0.07563949376344681, 0.038672007620334625, -0.011261491104960442, 0.019913071766495705, -0.027858905494213104, 0.34375, -0.22964780032634735, 0.6679655909538269, -0.0960579663515091, 0.13593871891498566, -0.09818444401025772, 0.3137846291065216, -0.14411012828350067, 0.16965824365615845, -0.01307161059230566, 0.11404702812433243, 0.036052118986845016, 0.36366307735443115, 0.07487533986568451, -0.3806769549846649, -0.19000327587127686, -0.09759476035833359, 0.1927744746208191, 0.11055168509483337, 0.11974748969078064, -0.1688348799943924, 0.01916976273059845, 0.1734810620546341, 0.14611390233039856, -0.10070954263210297, -0.1838562935590744, 0.14289388060569763, 0.06692349910736084, 0.032506827265024185, 0.0442955382168293, -0.353921115398407, 0.33940649032592773, 0.07652544975280762, -0.1826504021883011, 0.1738538295030594, 0.016352759674191475, -0.04388651251792908, -0.1407427340745926, -0.13965269923210144, 0.15631166100502014, 0.3432857096195221, -0.24035508930683136, -0.1569470912218094, 0.5065898895263672, -0.18554511666297913, 0.05668456479907036, -0.511159360408783, 0.5819165706634521, -0.8243693709373474, -0.12508022785186768, 0.06335119903087616, -1.023603081703186, -0.943239152431488, -0.6266424059867859, -0.6869108080863953, 0.09563083946704865, -0.06773407757282257, 0.16804064810276031, 0.3157879412174225, 0.037883929908275604, -0.16929249465465546, 0.09768175333738327, 0.03299781307578087, -0.06093449890613556, 0.24143259227275848, 0.4047703742980957, -0.12014638632535934, 0.13694971799850464, -0.13790363073349, 0.06965641677379608, -0.021524125710129738, -0.1354348361492157, 0.12507082521915436, 0.10340149700641632, 0.03836097940802574, 0.07607641816139221, 0.4134858548641205, 0.022051436826586723, -0.4363480806350708, -0.14390268921852112, 0.37256017327308655, -0.4484649896621704, -0.03164910525083542, 0.24175700545310974, -0.04325994476675987, -0.031455062329769135, 0.11037376523017883, -0.14285220205783844, 0.09913965314626694, 0.16867534816265106, -0.0904463455080986, -0.32917988300323486, 0.018123287707567215, 0.04382775351405144, 0.3487423360347748, 0.190061554312706, -0.03939713165163994, 0.21982131898403168, 0.0838766098022461, -0.0749843493103981, 0.038053710013628006, -0.38744640350341797, 0.302468478679657, 0.015650227665901184, 0.207025408744812, -0.03535476699471474, 0.03455567732453346, -0.19571389257907867, 0.15786868333816528, -0.010651650838553905, 0.04054304212331772, 0.006485545076429844, -0.05172351002693176, 0.14612893760204315, 0.1272241622209549, 0.22237113118171692, 0.21205836534500122, 1.6187400817871094, -0.058220185339450836, 0.24507592618465424, 0.6140329837799072, 0.6615618467330933, 0.44676193594932556, 0.42753469944000244, -0.52391517162323, -0.26303720474243164, 1.0625123977661133, -0.12616600096225739, 1.0259166955947876, 0.6264876127243042, 0.030558543279767036, -0.14831463992595673, -0.7566182017326355, -0.13319498300552368, 0.1139855906367302, -0.4242675304412842, -0.382980078458786, 0.19184786081314087, -0.03281448408961296, 0.13361625373363495, -0.2433760017156601, -0.11556579917669296, 0.09098877012729645, 0.1458842158317566, -0.16147641837596893, 0.3111664652824402, -0.18046830594539642, -0.09019649028778076, -0.13088859617710114, 0.08003567904233932, 0.039799850434064865, -0.15629354119300842, -0.0876171886920929, 0.5043525695800781, -0.2540719509124756, -0.011691974475979805, -0.16885633766651154, -0.23436902463436127, -0.1138090118765831, 0.019822223111987114, -0.005687158554792404, 0.1532030552625656, -0.5129897594451904, -0.03618011996150017, -0.33979591727256775, 0.14828714728355408, -0.10546030849218369, 0.0943339392542839, -0.24815666675567627, 0.03176487237215042, 0.12083505094051361, 0.08713575452566147, -0.31959688663482666, 0.30582958459854126, -0.21794085204601288, -0.08298468589782715, 0.6116182208061218, -0.1749747097492218, 0.10689222812652588, -0.03368630260229111, 0.034647323191165924, -0.058631230145692825, -0.060916051268577576, 0.17522482573986053, 0.40633368492126465, -0.05541524291038513, -0.06434720754623413, -0.10170435905456543, 0.1383780688047409, 0.3365562856197357, 0.1686050295829773, -0.3943752348423004, 0.05200706794857979, -0.6931018233299255, 1.1194562911987305, -0.32973891496658325, 0.6758795380592346, 0.015374185517430305, 0.5231553912162781, -0.13700348138809204, -0.08375056833028793, -0.8046857714653015, 1.4514957666397095, 0.38636788725852966, 0.2198227047920227, 0.008881671354174614, 0.019170576706528664, -0.03249218314886093, -0.8894972205162048, -0.06500432640314102, -0.09792490303516388, 0.18792405724525452, 0.24205054342746735, 0.22283373773097992, -0.1844136118888855, 0.18042510747909546, 0.22252628207206726, -0.3048825263977051, -0.25498339533805847, 0.4103350341320038, -0.4190872609615326, -0.0944516658782959, -0.2603585124015808, 0.17887747287750244, -0.008587336167693138, -0.24473664164543152, -0.05445104092359543, -0.11676761507987976, 0.4625871777534485, -0.341073215007782, -0.0842672809958458, -0.08768216520547867, 0.03939363360404968, -0.18257327377796173, 0.1303134709596634, 0.08294644951820374, -0.17489099502563477, 0.03815027326345444, -0.3880259394645691, -0.16350305080413818, -0.14393207430839539, -0.5035274028778076, 0.23137350380420685, 0.21309684216976166, -0.01347059290856123, 0.1357816904783249, -0.4749453663825989, -0.2183794528245926, -0.39076563715934753, -0.20495373010635376, 0.011773291975259781, -0.06709949672222137, -0.05798747017979622, 0.4547739326953888, 0.1166624203324318, -0.2534278631210327, -0.04195161908864975, -0.13941918313503265, -0.0127389682456851, 0.3178083300590515, 0.4247587025165558, 0.0373530350625515, -0.07436952739953995, -0.25577032566070557, 0.0746103823184967, -0.0038349463138729334, -0.17907097935676575, -1.0999356508255005, 0.12678338587284088, 0.9254826903343201, -0.20654065907001495, 0.26177963614463806, 0.132653146982193, -0.3393577039241791, 0.5234668850898743, -0.11368069797754288, -0.5004504323005676, 0.5005778074264526, 0.412243515253067, 0.07940012216567993, 0.43783286213874817, 0.7360075116157532, 0.20171847939491272, -0.16490770876407623, -1.1097702980041504, 0.2740713357925415, -0.23555181920528412, 0.3292069435119629, -0.09810780733823776, -0.04380136728286743, -0.0030078794807195663, -0.11577469855546951, -0.569870114326477, 0.13424061238765717, 0.2233172506093979, -0.04739389568567276, 0.10137323290109634, -0.19777975976467133, -0.31436342000961304, -0.08519267290830612, -0.12093297392129898, 0.07659370452165604, 0.1401202231645584, 0.020170262083411217, -0.12193156033754349, 0.38945895433425903, 0.29919618368148804, -0.02273927442729473, 0.296111136674881, 0.08157385140657425, -0.24502186477184296, 0.1337888091802597, -0.2810862064361572, 0.27156636118888855, 0.15147869288921356, -0.1284254640340805, 0.26643019914627075, 0.46882638335227966, 0.32324397563934326, 0.23453500866889954, 0.34807202219963074, -0.0592256598174572, 0.1500229388475418, 0.05034622922539711, -0.23465807735919952, -0.03556543588638306, -0.3841848373413086, 0.15735583007335663, 0.016764258965849876, -0.06245318800210953, -0.0518321692943573, -0.03404134884476662, -0.34312132000923157, 0.19412462413311005, -0.13954348862171173, 0.3682045340538025, 0.23761242628097534, -0.08797091990709305, -0.018514983355998993, 0.12345723807811737, 0.11833067983388901, -0.13617902994155884, 0.03192168101668358, 0.10377081483602524, -0.321059912443161, -1.0352367162704468, -0.5754104256629944, -0.9306900501251221, 0.6656762957572937, -0.2952965497970581, -0.8371031284332275, -0.13459035754203796, 0.11502450704574585, 0.6458032131195068, 0.22085779905319214, 1.0336612462997437, -1.1801292896270752, 1.2167935371398926, 1.3182833194732666, -0.30717819929122925, -0.2037057876586914, -0.24980193376541138, 0.10272820293903351, -0.389138400554657, 0.35677242279052734, 0.4400452971458435, -0.1330597698688507, -0.24893729388713837, 0.5811306834220886, 0.043418098241090775, 0.1179409772157669, 0.6977527141571045, 0.010085557587444782, 0.022836552932858467, 0.18149849772453308, 0.19429601728916168, 0.12641021609306335, 0.032823242247104645, -0.37661293148994446, -0.35275912284851074, 0.43808358907699585, 0.19808340072631836, 0.25975266098976135, -0.08838507533073425, -0.9064103364944458, -0.2524299919605255, 0.3006930649280548, 0.3106061816215515, 0.03166806697845459, 0.033656682819128036, 0.034891873598098755, -0.2423991560935974, 0.4464200437068939, 0.10057718306779861, -0.0221767146140337, 0.06884141266345978, -0.011118949390947819, 0.05809425190091133, 0.486440509557724, -0.08824692666530609, 0.13519194722175598, 0.08462802320718765, 0.140297994017601, 0.2361193746328354, -0.4305998682975769, -0.05669920891523361, -0.12073218077421188, -0.010790541768074036, 0.16030779480934143, -0.012961894273757935, 0.30951178073883057, -0.16279369592666626, 0.010110205039381981, 0.061882779002189636, -0.0026489803567528725, -0.02168545126914978, -0.09939400851726532, 0.38033822178840637, 0.3355496823787689, 0.04809719696640968, -0.7548171877861023, -0.12091034650802612, -0.04836457967758179, -0.23046547174453735, 0.3559243679046631, 0.2869518995285034, -0.44128191471099854, -0.050015389919281006, 0.1681065559387207, 0.4823986291885376, -0.11955636739730835, 0.3069649934768677, -0.028011441230773926, -0.1917715072631836, 0.30598050355911255, -0.4455450773239136, 0.41890019178390503, 0.4994143843650818, -0.1365121603012085, 0.1975109577178955, 0.49860215187072754, 0.9595922827720642, 0.8837975263595581, 1.0568629503250122, -1.137441873550415, 0.20393703877925873, 0.019999999552965164], "sample_rate": 48000.0}